<?xml version="1.0"?>
<opencv_storage>
<myhaar type_id="opencv-haar-classifier">
  <size>
    24 24</size>
  <stages>
    <_>
      <trees>
        <_>
          <_>
            <feature>
              <rects>
                <_>
                  3 0 4 3 -1.</_>
                <_>
                  2 1 4 1 3.</_></rects>
              <tilted>1</tilted></feature>
            <threshold>-0.0103848697617650</threshold>
            <left_val>0.8466613292694092</left_val>
            <right_val>-0.8105764985084534</right_val></_></_>
        <_>
          <_>
            <feature>
              <rects>
                <_>
                  20 20 1 4 -1.</_>
                <_>
                  20 22 1 2 2.</_></rects>
              <tilted>0</tilted></feature>
            <threshold>2.4491068907082081e-003</threshold>
            <left_val>-0.4006349146366119</left_val>
            <right_val>0.6170979738235474</right_val></_></_>
        <_>
          <_>
            <feature>
              <rects>
                <_>
                  2 20 17 4 -1.</_>
                <_>
                  2 22 17 2 2.</_></rects>
              <tilted>0</tilted></feature>
            <threshold>0.0385516099631786</threshold>
            <left_val>-0.6135622859001160</left_val>
            <right_val>0.9132075905799866</right_val></_></_></trees>
      <stage_threshold>-0.8070409297943115</stage_threshold>
      <parent>-1</parent>
      <next>-1</next></_>
    <_>
      <trees>
        <_>
          <_>
            <feature>
              <rects>
                <_>
                  3 18 3 3 -1.</_>
                <_>
                  4 19 1 3 3.</_></rects>
              <tilted>1</tilted></feature>
            <threshold>-6.2393811531364918e-003</threshold>
            <left_val>0.7757318019866943</left_val>
            <right_val>-0.7467554807662964</right_val></_></_>
        <_>
          <_>
            <feature>
              <rects>
                <_>
                  18 16 4 3 -1.</_>
                <_>
                  17 17 4 1 3.</_></rects>
              <tilted>1</tilted></feature>
            <threshold>5.9456829912960529e-003</threshold>
            <left_val>-0.2394531965255737</left_val>
            <right_val>0.6113271117210388</right_val></_></_>
        <_>
          <_>
            <feature>
              <rects>
                <_>
                  5 17 3 4 -1.</_>
                <_>
                  6 18 1 4 3.</_></rects>
              <tilted>1</tilted></feature>
            <threshold>-6.6054319031536579e-003</threshold>
            <left_val>0.7281661033630371</left_val>
            <right_val>-0.7839701175689697</right_val></_></_></trees>
      <stage_threshold>-0.2580426037311554</stage_threshold>
      <parent>0</parent>
      <next>-1</next></_>
    <_>
      <trees>
        <_>
          <_>
            <feature>
              <rects>
                <_>
                  3 0 6 3 -1.</_>
                <_>
                  2 1 6 1 3.</_></rects>
              <tilted>1</tilted></feature>
            <threshold>-0.0125192096456885</threshold>
            <left_val>0.7151609063148499</left_val>
            <right_val>-0.7955709099769592</right_val></_></_>
        <_>
          <_>
            <feature>
              <rects>
                <_>
                  5 0 15 4 -1.</_>
                <_>
                  5 1 15 2 2.</_></rects>
              <tilted>0</tilted></feature>
            <threshold>-0.0148309497162700</threshold>
            <left_val>0.8018373250961304</left_val>
            <right_val>-0.6339023709297180</right_val></_></_></trees>
      <stage_threshold>6.2663559801876545e-003</stage_threshold>
      <parent>1</parent>
      <next>-1</next></_>
    <_>
      <trees>
        <_>
          <_>
            <feature>
              <rects>
                <_>
                  0 1 2 14 -1.</_>
                <_>
                  1 1 1 14 2.</_></rects>
              <tilted>0</tilted></feature>
            <threshold>-0.0199480298906565</threshold>
            <left_val>0.9853463172912598</left_val>
            <right_val>-0.5103440880775452</right_val></_></_>
        <_>
          <_>
            <feature>
              <rects>
                <_>
                  2 2 22 20 -1.</_>
                <_>
                  2 12 22 10 2.</_></rects>
              <tilted>0</tilted></feature>
            <threshold>-0.0697301328182220</threshold>
            <left_val>-1.</left_val>
            <right_val>0.5658569931983948</right_val></_></_></trees>
      <stage_threshold>0.0555128492414951</stage_threshold>
      <parent>2</parent>
      <next>-1</next></_>
    <_>
      <trees>
        <_>
          <_>
            <feature>
              <rects>
                <_>
                  7 1 16 6 -1.</_>
                <_>
                  7 1 8 6 2.</_></rects>
              <tilted>1</tilted></feature>
            <threshold>-9.4989305362105370e-003</threshold>
            <left_val>-1.</left_val>
            <right_val>0.5325673222541809</right_val></_></_></trees>
      <stage_threshold>0.5325673222541809</stage_threshold>
      <parent>3</parent>
      <next>-1</next></_>
    <_>
      <trees>
        <_>
          <_>
            <feature>
              <rects>
                <_>
                  3 3 18 16 -1.</_>
                <_>
                  12 3 9 16 2.</_></rects>
              <tilted>0</tilted></feature>
            <threshold>-0.0407478697597981</threshold>
            <left_val>-1.</left_val>
            <right_val>0.5564205050468445</right_val></_></_></trees>
      <stage_threshold>0.5564205050468445</stage_threshold>
      <parent>4</parent>
      <next>-1</next></_>
    <_>
      <trees>
        <_>
          <_>
            <feature>
              <rects>
                <_>
                  0 7 6 9 -1.</_>
                <_>
                  3 7 3 9 2.</_></rects>
              <tilted>0</tilted></feature>
            <threshold>-6.2979110516607761e-003</threshold>
            <left_val>0.4255171120166779</left_val>
            <right_val>-0.8995488286018372</right_val></_></_>
        <_>
          <_>
            <feature>
              <rects>
                <_>
                  9 15 6 2 -1.</_>
                <_>
                  12 15 3 1 2.</_>
                <_>
                  9 16 3 1 2.</_></rects>
              <tilted>0</tilted></feature>
            <threshold>4.9738278612494469e-003</threshold>
            <left_val>-0.5491263270378113</left_val>
            <right_val>0.7607914805412293</right_val></_></_></trees>
      <stage_threshold>-0.1387571990489960</stage_threshold>
      <parent>5</parent>
      <next>-1</next></_>
    <_>
      <trees>
        <_>
          <_>
            <feature>
              <rects>
                <_>
                  7 0 1 6 -1.</_>
                <_>
                  7 0 1 3 2.</_></rects>
              <tilted>1</tilted></feature>
            <threshold>2.6329740649089217e-004</threshold>
            <left_val>-0.9025815129280090</left_val>
            <right_val>0.4468292891979218</right_val></_></_>
        <_>
          <_>
            <feature>
              <rects>
                <_>
                  4 22 19 2 -1.</_>
                <_>
                  4 23 19 1 2.</_></rects>
              <tilted>0</tilted></feature>
            <threshold>0.0184004604816437</threshold>
            <left_val>-0.5599293112754822</left_val>
            <right_val>0.6553084254264832</right_val></_></_></trees>
      <stage_threshold>-0.2472731024026871</stage_threshold>
      <parent>6</parent>
      <next>-1</next></_>
    <_>
      <trees>
        <_>
          <_>
            <feature>
              <rects>
                <_>
                  1 0 2 1 -1.</_>
                <_>
                  2 0 1 1 2.</_></rects>
              <tilted>0</tilted></feature>
            <threshold>1.0499710333533585e-004</threshold>
            <left_val>0.3651882112026215</left_val>
            <right_val>-1.0000009536743164</right_val></_></_></trees>
      <stage_threshold>0.3651882112026215</stage_threshold>
      <parent>7</parent>
      <next>-1</next></_>
    <_>
      <trees>
        <_>
          <_>
            <feature>
              <rects>
                <_>
                  1 0 2 1 -1.</_>
                <_>
                  2 0 1 1 2.</_></rects>
              <tilted>0</tilted></feature>
            <threshold>-9.4975046522449702e-005</threshold>
            <left_val>-0.9175257086753845</left_val>
            <right_val>0.5894042253494263</right_val></_></_>
        <_>
          <_>
            <feature>
              <rects>
                <_>
                  9 0 14 1 -1.</_>
                <_>
                  9 0 7 1 2.</_></rects>
              <tilted>0</tilted></feature>
            <threshold>-2.5577380438335240e-004</threshold>
            <left_val>-0.8183106184005737</left_val>
            <right_val>0.1945571005344391</right_val></_></_>
        <_>
          <_>
            <feature>
              <rects>
                <_>
                  3 8 13 3 -1.</_>
                <_>
                  2 9 13 1 3.</_></rects>
              <tilted>1</tilted></feature>
            <threshold>-0.0234845895320177</threshold>
            <left_val>0.7889143824577332</left_val>
            <right_val>-0.5385202765464783</right_val></_></_></trees>
      <stage_threshold>0.0659458637237549</stage_threshold>
      <parent>8</parent>
      <next>-1</next></_>
    <_>
      <trees>
        <_>
          <_>
            <feature>
              <rects>
                <_>
                  0 0 24 1 -1.</_>
                <_>
                  12 0 12 1 2.</_></rects>
              <tilted>0</tilted></feature>
            <threshold>-4.6265679411590099e-003</threshold>
            <left_val>-0.9040306210517883</left_val>
            <right_val>0.4577262103557587</right_val></_></_>
        <_>
          <_>
            <feature>
              <rects>
                <_>
                  13 14 3 6 -1.</_>
                <_>
                  14 14 1 6 3.</_></rects>
              <tilted>0</tilted></feature>
            <threshold>2.4407550226897001e-003</threshold>
            <left_val>-0.2927838861942291</left_val>
            <right_val>0.2201970070600510</right_val></_></_>
        <_>
          <_>
            <feature>
              <rects>
                <_>
                  2 14 2 2 -1.</_>
                <_>
                  2 14 1 2 2.</_></rects>
              <tilted>1</tilted></feature>
            <threshold>4.4495798647403717e-003</threshold>
            <left_val>-0.7006531953811646</left_val>
            <right_val>0.5618994235992432</right_val></_></_>
        <_>
          <_>
            <feature>
              <rects>
                <_>
                  23 2 1 2 -1.</_>
                <_>
                  23 3 1 1 2.</_></rects>
              <tilted>0</tilted></feature>
            <threshold>-8.9597611804492772e-005</threshold>
            <left_val>-0.7762246727943420</left_val>
            <right_val>0.2970513105392456</right_val></_></_></trees>
      <stage_threshold>-0.7989547252655029</stage_threshold>
      <parent>9</parent>
      <next>-1</next></_></stages></myhaar>
</opencv_storage>
